[[0 0 0 0 0 0 0 0 0 0 0 0 0 0 0 1]
 [1 0 1 0 0 0 0 0 0 0 0 0 0 0 0 0]
 [1 0 0 1 0 1 0 0 0 0 0 0 0 0 0 0]
 [0 0 0 0 0 0 0 0 0 0 0 0 0 0 0 0]
 [0 0 0 1 0 0 0 0 0 1 0 0 0 0 0 0]
 [0 0 0 1 1 0 0 0 0 1 0 0 0 0 0 0]
 [1 1 1 0 0 1 0 1 0 0 0 0 0 0 0 1]
 [0 1 1 0 0 1 0 0 0 1 0 0 0 0 0 0]
 [0 0 0 0 0 0 1 1 0 1 0 0 0 0 0 0]
 [0 0 0 1 0 0 0 0 0 0 0 0 0 0 0 0]
 [0 0 0 0 1 0 0 0 0 0 0 0 1 1 1 0]
 [0 1 0 0 1 1 1 1 1 1 1 0 1 1 1 0]
 [1 1 0 0 0 0 1 0 1 0 0 0 0 0 0 1]
 [0 0 0 0 1 1 0 1 1 0 0 0 0 0 0 0]
 [0 0 0 0 0 0 0 0 1 0 0 0 1 1 0 1]
 [0 0 0 0 0 0 0 0 0 0 0 0 0 0 0 0]]
net
{
}
node x0
{
states = ( "0" "1" );
}
node x1
{
states = ( "0" "1" );
}
node x2
{
states = ( "0" "1" );
}
node x3
{
states = ( "0" "1" );
}
node x4
{
states = ( "0" "1" );
}
node x5
{
states = ( "0" "1" );
}
node x6
{
states = ( "0" "1" );
}
node x7
{
states = ( "0" "1" );
}
node x8
{
states = ( "0" "1" );
}
node x9
{
states = ( "0" "1" );
}
node x10
{
states = ( "0" "1" );
}
node x11
{
states = ( "0" "1" );
}
node x12
{
states = ( "0" "1" );
}
node x13
{
states = ( "0" "1" );
}
node x14
{
states = ( "0" "1" );
}
node x15
{
states = ( "0" "1" );
}
potential ( x0 | x1 x2 x6 x12 )
{
data = (((((0.744588744589 0.255411255411)(0.483443708609 0.516556291391))((0.256684491979 0.743315508021)(0.102150537634 0.897849462366)))(((0.430107526882 0.569892473118)(0.263736263736 0.736263736264))((0.103703703704 0.896296296296)(0.0379537953795 0.96204620462))))((((0.514893617021 0.485106382979)(0.362924281984 0.637075718016))((0.209821428571 0.790178571429)(0.0853835021708 0.914616497829)))(((0.313492063492 0.686507936508)(0.136934673367 0.863065326633))((0.094674556213 0.905325443787)(0.0257055922778 0.974294407722)))));
}
potential ( x1 | x6 x7 x11 x12 )
{
data = (((((0.74218051832 0.25781948168)(0.311258278146 0.688741721854))((0.514018691589 0.485981308411)(0.263157894737 0.736842105263)))(((0.554054054054 0.445945945946)(0.170212765957 0.829787234043))((0.2 0.8)(0.101265822785 0.898734177215))))((((0.437571592211 0.562428407789)(0.143902439024 0.856097560976))((0.322033898305 0.677966101695)(0.0849703060758 0.915029693924)))(((0.37969924812 0.62030075188)(0.128735632184 0.871264367816))((0.284946236559 0.715053763441)(0.0475926182878 0.952407381712)))));
}
potential ( x2 | x1 x6 x7 )
{
data = ((((0.76707530648 0.23292469352)(0.413575927222 0.586424072778))((0.427272727273 0.572727272727)(0.165395894428 0.834604105572)))(((0.614457831325 0.385542168675)(0.292063492063 0.707936507937))((0.309341500766 0.690658499234)(0.0647342995169 0.935265700483))));
}
potential ( x3 | x2 x4 x5 x9 )
{
data = (((((0.904707233065 0.0952927669346)(0.827983795575 0.172016204425))((0.675090252708 0.324909747292)(0.584775086505 0.415224913495)))(((0.743055555556 0.256944444444)(0.374149659864 0.625850340136))((0.468253968254 0.531746031746)(0.198958935801 0.801041064199))))((((0.902173913043 0.0978260869565)(0.708812260536 0.291187739464))((0.740740740741 0.259259259259)(0.610465116279 0.389534883721)))(((0.551724137931 0.448275862069)(0.20902090209 0.79097909791))((0.327102803738 0.672897196262)(0.0612071408331 0.938792859167)))));
}
potential ( x4 | x5 x10 x11 x13 )
{
data = (((((0.939201790377 0.0607982096233)(0.806378132118 0.193621867882))((0.951690821256 0.048309178744)(0.921052631579 0.0789473684211)))(((0.967032967033 0.032967032967)(0.860465116279 0.139534883721))((0.961647727273 0.0383522727273)(0.91364902507 0.0863509749304))))((((0.741134751773 0.258865248227)(0.527607361963 0.472392638037))((0.614519427403 0.385480572597)(0.389580973952 0.610419026048)))(((0.592105263158 0.407894736842)(0.460317460317 0.539682539683))((0.443096476025 0.556903523975)(0.156238565679 0.843761434321)))));
}
potential ( x5 | x2 x6 x7 x11 x13 )
{
data = ((((((0.983333333333 0.0166666666667)(0.941935483871 0.058064516129))((0.90625 0.09375)(0.784565916399 0.215434083601)))(((0.893333333333 0.106666666667)(0.790909090909 0.209090909091))((0.745562130178 0.254437869822)(0.45 0.55))))((((0.974137931034 0.0258620689655)(0.94262295082 0.0573770491803))((0.85 0.15)(0.701612903226 0.298387096774)))(((0.823529411765 0.176470588235)(0.8125 0.1875))((0.705882352941 0.294117647059)(0.337198067633 0.662801932367)))))(((((0.953079178886 0.0469208211144)(0.890243902439 0.109756097561))((0.897435897436 0.102564102564)(0.706766917293 0.293233082707)))(((0.854166666667 0.145833333333)(0.745454545455 0.254545454545))((0.70987654321 0.29012345679)(0.281666666667 0.718333333333))))((((0.948113207547 0.0518867924528)(0.79375 0.20625))((0.793893129771 0.206106870229)(0.612033195021 0.387966804979)))(((0.833333333333 0.166666666667)(0.604166666667 0.395833333333))((0.614077669903 0.385922330097)(0.123505295524 0.876494704476))))));
}
potential ( x6 | x8 x11 x12 )
{
data = ((((0.931776556777 0.0682234432234)(0.351197263398 0.648802736602))((0.787878787879 0.212121212121)(0.15625 0.84375)))(((0.74097135741 0.25902864259)(0.139298892989 0.860701107011))((0.626068376068 0.373931623932)(0.0508230205455 0.949176979455))));
}
potential ( x7 | x6 x8 x11 x13 )
{
data = (((((0.977086035452 0.0229139645482)(0.815789473684 0.184210526316))((0.728033472803 0.271966527197)(0.319704713231 0.680295286769)))(((0.967741935484 0.0322580645161)(0.607142857143 0.392857142857))((0.671875 0.328125)(0.20133234641 0.79866765359))))((((0.949843260188 0.0501567398119)(0.731182795699 0.268817204301))((0.701754385965 0.298245614035)(0.170292106899 0.829707893101)))(((0.916666666667 0.0833333333333)(0.644444444444 0.355555555556))((0.584337349398 0.415662650602)(0.0777448071217 0.922255192878)))));
}
potential ( x8 | x11 x12 x13 x14 )
{
data = (((((0.774436090226 0.225563909774)(0.529411764706 0.470588235294))((0.354487760653 0.645512239347)(0.120553359684 0.879446640316)))(((0.555555555556 0.444444444444)(0.15 0.85))((0.184 0.816)(0.095652173913 0.904347826087))))((((0.562277580071 0.437722419929)(0.228070175439 0.771929824561))((0.169230769231 0.830769230769)(0.09537299339 0.90462700661)))(((0.404255319149 0.595744680851)(0.107382550336 0.892617449664))((0.120044667783 0.879955332217)(0.0417427969079 0.958257203092)))));
}
potential ( x9 | x4 x5 x7 x8 x11 )
{
data = ((((((0.998001598721 0.00199840127898)(0.995633187773 0.00436681222707))((0.977528089888 0.0224719101124)(0.96875 0.03125)))(((0.988888888889 0.0111111111111)(0.941176470588 0.0588235294118))((0.966666666667 0.0333333333333)(0.9 0.1))))((((0.977710233029 0.0222897669706)(0.936046511628 0.0639534883721))((0.978021978022 0.021978021978)(0.979166666667 0.0208333333333)))(((0.88128342246 0.11871657754)(0.803088803089 0.196911196911))((0.710033076075 0.289966923925)(0.529953917051 0.470046082949)))))(((((0.996389891697 0.00361010830325)(0.98275862069 0.0172413793103))((0.916666666667 0.0833333333333)(0.970588235294 0.0294117647059)))(((0.97619047619 0.0238095238095)(0.941176470588 0.0588235294118))((0.923076923077 0.0769230769231)(0.95652173913 0.0434782608696))))((((0.946050096339 0.0539499036609)(0.891791044776 0.108208955224))((0.861313868613 0.138686131387)(0.871794871795 0.128205128205)))(((0.77376654633 0.22623345367)(0.70206022187 0.29793977813))((0.558423913043 0.441576086957)(0.271947194719 0.728052805281))))));
}
potential ( x10 | x11 )
{
data = ((0.500421940928 0.499578059072)(0.0510192837466 0.948980716253));
}
potential ( x11 | )
{
data = (0.439288141877 0.560711858123);
}
potential ( x12 | x10 x11 x14 )
{
data = ((((0.793615441722 0.206384558278)(0.350775193798 0.649224806202))((0.234899328859 0.765100671141)(0.091726618705 0.908273381295)))(((0.279123414072 0.720876585928)(0.126436781609 0.873563218391))((0.0914826498423 0.908517350158)(0.0217148529594 0.978285147041))));
}
potential ( x13 | x10 x11 x14 )
{
data = ((((0.962509279881 0.0374907201188)(0.874031007752 0.125968992248))((0.845637583893 0.154362416107)(0.802158273381 0.197841726619)))(((0.60553633218 0.39446366782)(0.314704716607 0.685295283393))((0.441640378549 0.558359621451)(0.120858667328 0.879141332672))));
}
potential ( x14 | x10 x11 )
{
data = (((0.756673222815 0.243326777185)(0.290177314945 0.709822685055))((0.318965517241 0.681034482759)(0.0644374782306 0.935562521769)));
}
potential ( x15 | x0 x6 x12 x14 )
{
data = (((((0.741094700261 0.258905299739)(0.472008781559 0.527991218441))((0.41935483871 0.58064516129)(0.311158798283 0.688841201717)))(((0.171641791045 0.828358208955)(0.085 0.915))((0.0833333333333 0.916666666667)(0.0120675784393 0.987932421561))))((((0.217391304348 0.782608695652)(0.151658767773 0.848341232227))((0.128205128205 0.871794871795)(0.036312849162 0.963687150838)))(((0.0679886685552 0.932011331445)(0.0283768444949 0.971623155505))((0.0146699266504 0.98533007335)(0.00405896176031 0.99594103824)))));
}
